filename,dim_0,dim_1,dim_2,dim_3,dim_4,dim_5,dim_6,dim_7,dim_8,dim_9,dim_10,dim_11,dim_12,dim_13,dim_14,dim_15,dim_16,dim_17,dim_18,dim_19,dim_20,dim_21,dim_22,dim_23,dim_24,dim_25,dim_26,dim_27,dim_28,dim_29,dim_30,dim_31,dim_32,dim_33,dim_34,dim_35,dim_36,dim_37,dim_38,dim_39,dim_40,dim_41,dim_42,dim_43,dim_44,dim_45,dim_46,dim_47,dim_48,dim_49,dim_50,dim_51,dim_52,dim_53,dim_54,dim_55,dim_56,dim_57,dim_58,dim_59,dim_60,dim_61,dim_62,dim_63,dim_64,dim_65,dim_66,dim_67,dim_68,dim_69,dim_70,dim_71,dim_72,dim_73,dim_74,dim_75,dim_76,dim_77,dim_78,dim_79,dim_80,dim_81,dim_82,dim_83,dim_84,dim_85,dim_86,dim_87,dim_88,dim_89,dim_90,dim_91,dim_92,dim_93,dim_94,dim_95,dim_96,dim_97,dim_98,dim_99,dim_100,dim_101,dim_102,dim_103,dim_104,dim_105,dim_106,dim_107,dim_108,dim_109,dim_110,dim_111,dim_112,dim_113,dim_114,dim_115,dim_116,dim_117,dim_118,dim_119,dim_120,dim_121,dim_122,dim_123,dim_124,dim_125,dim_126,dim_127,dim_128,dim_129,dim_130,dim_131,dim_132,dim_133,dim_134,dim_135,dim_136,dim_137,dim_138,dim_139,dim_140,dim_141,dim_142,dim_143,dim_144,dim_145,dim_146,dim_147,dim_148,dim_149,dim_150,dim_151,dim_152,dim_153,dim_154,dim_155,dim_156,dim_157,dim_158,dim_159,dim_160,dim_161,dim_162,dim_163,dim_164,dim_165,dim_166,dim_167,dim_168,dim_169,dim_170,dim_171,dim_172,dim_173,dim_174,dim_175,dim_176,dim_177,dim_178,dim_179,dim_180,dim_181,dim_182,dim_183,dim_184,dim_185,dim_186,dim_187,dim_188,dim_189,dim_190,dim_191,dim_192,dim_193,dim_194,dim_195,dim_196,dim_197,dim_198,dim_199,dim_200,dim_201,dim_202,dim_203,dim_204,dim_205,dim_206,dim_207,dim_208,dim_209,dim_210,dim_211,dim_212,dim_213,dim_214,dim_215,dim_216,dim_217,dim_218,dim_219,dim_220,dim_221,dim_222,dim_223,dim_224,dim_225,dim_226,dim_227,dim_228,dim_229,dim_230,dim_231,dim_232,dim_233,dim_234,dim_235,dim_236,dim_237,dim_238,dim_239,dim_240,dim_241,dim_242,dim_243,dim_244,dim_245,dim_246,dim_247,dim_248,dim_249,dim_250,dim_251,dim_252,dim_253,dim_254,dim_255,dim_256,dim_257,dim_258,dim_259,dim_260,dim_261,dim_262,dim_263,dim_264,dim_265,dim_266,dim_267,dim_268,dim_269,dim_270,dim_271,dim_272,dim_273,dim_274,dim_275,dim_276,dim_277,dim_278,dim_279,dim_280,dim_281,dim_282,dim_283,dim_284,dim_285,dim_286,dim_287,dim_288,dim_289,dim_290,dim_291,dim_292,dim_293,dim_294,dim_295,dim_296,dim_297,dim_298,dim_299,dim_300,dim_301,dim_302,dim_303,dim_304,dim_305,dim_306,dim_307,dim_308,dim_309,dim_310,dim_311,dim_312,dim_313,dim_314,dim_315,dim_316,dim_317,dim_318,dim_319,dim_320,dim_321,dim_322,dim_323,dim_324,dim_325,dim_326,dim_327,dim_328,dim_329,dim_330,dim_331,dim_332,dim_333,dim_334,dim_335,dim_336,dim_337,dim_338,dim_339,dim_340,dim_341,dim_342,dim_343,dim_344,dim_345,dim_346,dim_347,dim_348,dim_349,dim_350,dim_351,dim_352,dim_353,dim_354,dim_355,dim_356,dim_357,dim_358,dim_359,dim_360,dim_361,dim_362,dim_363,dim_364,dim_365,dim_366,dim_367,dim_368,dim_369,dim_370,dim_371,dim_372,dim_373,dim_374,dim_375,dim_376,dim_377,dim_378,dim_379,dim_380,dim_381,dim_382,dim_383,dim_384,dim_385,dim_386,dim_387,dim_388,dim_389,dim_390,dim_391,dim_392,dim_393,dim_394,dim_395,dim_396,dim_397,dim_398,dim_399,dim_400,dim_401,dim_402,dim_403,dim_404,dim_405,dim_406,dim_407,dim_408,dim_409,dim_410,dim_411,dim_412,dim_413,dim_414,dim_415,dim_416,dim_417,dim_418,dim_419,dim_420,dim_421,dim_422,dim_423,dim_424,dim_425,dim_426,dim_427,dim_428,dim_429,dim_430,dim_431,dim_432,dim_433,dim_434,dim_435,dim_436,dim_437,dim_438,dim_439,dim_440,dim_441,dim_442,dim_443,dim_444,dim_445,dim_446,dim_447,dim_448,dim_449,dim_450,dim_451,dim_452,dim_453,dim_454,dim_455,dim_456,dim_457,dim_458,dim_459,dim_460,dim_461,dim_462,dim_463,dim_464,dim_465,dim_466,dim_467,dim_468,dim_469,dim_470,dim_471,dim_472,dim_473,dim_474,dim_475,dim_476,dim_477,dim_478,dim_479,dim_480,dim_481,dim_482,dim_483,dim_484,dim_485,dim_486,dim_487,dim_488,dim_489,dim_490,dim_491,dim_492,dim_493,dim_494,dim_495,dim_496,dim_497,dim_498,dim_499,dim_500,dim_501,dim_502,dim_503,dim_504,dim_505,dim_506,dim_507,dim_508,dim_509,dim_510,dim_511
frame_1.jpg,-0.36631539463996887,-0.25828057527542114,0.5166428089141846,-0.6267886757850647,-0.39655035734176636,-0.07002352178096771,0.24272051453590393,0.18334372341632843,-0.0925622507929802,1.0802809000015259,0.534993588924408,-0.2198895514011383,0.03537433594465256,-0.28943562507629395,-0.1024278998374939,0.3909740447998047,-0.2736157476902008,-0.25970327854156494,0.3384271562099457,0.21873986721038818,-0.3331010639667511,0.37084755301475525,0.30061614513397217,0.08877648413181305,-0.5619146823883057,0.3066207468509674,-0.43404173851013184,0.37266671657562256,-0.055397529155015945,-0.02595105953514576,1.284028172492981,0.8357073664665222,0.23958611488342285,0.7973435521125793,-0.20851020514965057,0.09249655157327652,-0.07043670862913132,0.23357261717319489,-0.3115200996398926,0.6626962423324585,0.43561550974845886,-0.11584528535604477,-0.565557599067688,-0.10211437195539474,0.06769382953643799,-0.2574504613876343,0.36090436577796936,-0.24902217090129852,0.147766575217247,-0.1953243464231491,-0.4863620102405548,0.7772853970527649,-0.40291109681129456,0.2752111256122589,0.20635008811950684,0.40308475494384766,-0.28443440794944763,-0.09623954445123672,-0.12017160654067993,-0.3161446750164032,-0.2092386782169342,-0.19883909821510315,0.26307857036590576,-0.09224434942007065,0.04259280115365982,-0.8101058602333069,0.24007731676101685,0.11748334765434265,-0.5678040385246277,-0.01119727361947298,-0.3844192326068878,-0.39383020997047424,0.03272358700633049,-0.2577456831932068,0.3459749221801758,0.5397275686264038,0.70272296667099,0.2640678882598877,0.3671419322490692,-0.380079984664917,-0.3037927746772766,-0.25382760167121887,-0.10924357175827026,-0.2688744068145752,-0.2115699052810669,0.5582785606384277,-0.3252394199371338,-0.20413415133953094,1.102664828300476,0.2005922794342041,0.35314202308654785,-0.12719927728176117,0.010389254428446293,0.14694353938102722,0.2247207760810852,0.04620526731014252,0.23131148517131805,-0.40105414390563965,-0.2827320992946625,0.153337761759758,0.25570598244667053,-0.3777683973312378,-0.38845768570899963,0.21326127648353577,0.2905060648918152,0.1145765632390976,-0.6709827780723572,-0.011595294810831547,-0.05575885996222496,0.14973682165145874,-0.4009677469730377,-0.3984999656677246,-0.41554757952690125,0.21636590361595154,0.09992019832134247,0.6964983344078064,-0.1686369925737381,-0.18344223499298096,0.09332799166440964,0.5148724317550659,-0.28612691164016724,0.7299964427947998,-0.011530998162925243,-0.32540252804756165,-0.5555529594421387,0.3685041666030884,0.13930167257785797,-0.1477029025554657,-0.716842770576477,0.6239073872566223,0.0935705229640007,-0.13785609602928162,0.7516186833381653,-0.37909233570098877,0.27900347113609314,0.3698594570159912,-0.04943862557411194,-0.15817444026470184,0.05819107964634895,0.3006860613822937,-0.01686054840683937,-0.09497980773448944,0.43979915976524353,0.027993839234113693,0.09867832809686661,0.9498571157455444,-0.5797611474990845,0.6621903777122498,-0.04786263033747673,0.4562101662158966,0.2576395571231842,0.7715317010879517,3.7474350929260254,0.2082255780696869,0.17967578768730164,0.031171249225735664,0.1967739760875702,-0.12408454716205597,-0.19410304725170135,-0.16607707738876343,-0.47388583421707153,-0.39323049783706665,0.04797390475869179,-0.3692440688610077,-0.0993431955575943,-0.33664992451667786,0.02852807566523552,-0.24756594002246857,-0.03983234614133835,-0.2202066034078598,-0.11496059596538544,-0.1839492917060852,-0.4091210663318634,0.17759938538074493,-0.5113468766212463,0.6913837194442749,0.42392975091934204,-0.19383971393108368,1.225213885307312,-0.029861927032470703,-0.18904581665992737,-0.11456216871738434,-0.024415593594312668,-0.07395107299089432,-0.6377897262573242,0.2789168059825897,0.06312496960163116,-0.6814176440238953,0.03468926250934601,-0.09771110862493515,0.048856545239686966,-0.9537535905838013,0.04136570543050766,-0.36557331681251526,0.0819530114531517,0.13744109869003296,-0.31765687465667725,-0.15410904586315155,0.032009873539209366,-0.09793388098478317,0.2694013714790344,-0.3982570767402649,-0.4509965181350708,0.34446290135383606,0.21940340101718903,-0.23645474016666412,0.2076486498117447,0.08885207772254944,0.3473045229911804,-0.39427053928375244,0.13476340472698212,0.5599965453147888,-0.0018824852304533124,-0.08024793118238449,0.5135641098022461,0.4380505383014679,0.09976636618375778,-0.593224048614502,-0.1666194051504135,-0.7383602261543274,0.48134273290634155,0.2932843863964081,-0.21443407237529755,-0.9475562572479248,0.777725875377655,0.30118605494499207,0.12271298468112946,-0.2891369163990021,0.16540630161762238,-0.19458918273448944,-0.3067121207714081,-0.09229215234518051,-0.620538592338562,-0.5676907896995544,0.1311257779598236,0.2677055299282074,0.07422603666782379,-0.2216852605342865,-0.7092252969741821,0.06529292464256287,-0.566057562828064,-0.27452513575553894,-0.14541344344615936,0.16772432625293732,-0.2304711937904358,-0.0432095043361187,-0.050632867962121964,0.5776296854019165,-0.1600128561258316,0.34039098024368286,-0.2634551227092743,0.8707375526428223,0.03878099098801613,-0.38495177030563354,-0.2715917229652405,-0.08274400979280472,0.48817282915115356,-0.10911925882101059,0.3942917585372925,0.5423348546028137,-0.10196959972381592,0.13545142114162445,0.2252456545829773,-0.4971642792224884,0.13129033148288727,-0.050384458154439926,0.26627257466316223,0.21578383445739746,0.12087301164865494,-0.13732236623764038,-0.32505011558532715,0.2837226986885071,0.5084661245346069,0.4190222918987274,0.21471178531646729,0.018575740978121758,0.10908178240060806,-0.014821253716945648,-0.24418888986110687,-0.12930847704410553,0.17297674715518951,0.003597323317080736,-0.038795508444309235,0.26538923382759094,-0.3487749695777893,-0.12722191214561462,-0.18894824385643005,0.4637746214866638,0.8427521586418152,-0.0924592986702919,-0.011601237580180168,0.628147542476654,0.18042932450771332,-0.2451486736536026,-0.5601184368133545,0.37612876296043396,-0.9366919994354248,0.19375772774219513,-0.19131074845790863,0.8731481432914734,-1.5589224100112915,1.0128321647644043,-0.29836761951446533,0.04885217174887657,-3.0798680782318115,-0.8477998971939087,-0.823625385761261,-3.7558915615081787,-0.16114459931850433,-0.03952218219637871,-0.3101958632469177,-0.9995468854904175,0.2591419219970703,0.024994391947984695,0.2582084834575653,0.008392035961151123,-0.4352298974990845,-0.4207271635532379,0.11589478701353073,0.6041311621665955,0.15673519670963287,0.2138373851776123,0.221258282661438,-0.2889117896556854,0.30811095237731934,-0.10550816357135773,0.311504065990448,0.5434404015541077,-0.016591878607869148,-0.287151962518692,-0.22108270227909088,0.6133445501327515,0.21210213005542755,0.37774187326431274,-0.5412071943283081,0.2673857510089874,-0.0010569216683506966,-0.274831622838974,-0.01710638217628002,-0.07364675402641296,0.457816481590271,0.19508609175682068,-0.32866042852401733,0.1253906786441803,-0.1230282112956047,0.34135738015174866,-0.3784865736961365,0.3711317181587219,0.037715427577495575,0.04324034973978996,-0.2707309126853943,0.3489697575569153,0.2639870345592499,0.49574169516563416,0.40479880571365356,0.24205151200294495,0.2778172194957733,0.8253312110900879,-0.6864089369773865,-0.470674067735672,0.1276121586561203,-0.640143096446991,-0.5206620097160339,0.07895322144031525,-0.4456791877746582,-0.10190528631210327,0.18569837510585785,-0.09163599461317062,-0.9914201498031616,-0.1006237268447876,0.275012344121933,0.1913485825061798,-0.5010853409767151,0.17845216393470764,-0.017716869711875916,0.25169146060943604,0.10712172836065292,-0.48816362023353577,0.006849719677120447,0.13864625990390778,-0.4128163456916809,-0.38025566935539246,-0.28317174315452576,0.4667729437351227,-0.30974337458610535,-0.07339359074831009,0.21023593842983246,0.5786877870559692,0.046897780150175095,0.6400812268257141,-0.12683053314685822,-0.5144449472427368,0.11353062838315964,-0.007562513463199139,-1.0936874151229858,-0.27988386154174805,0.7835537791252136,0.5905241966247559,0.47731685638427734,-0.035436417907476425,-0.11201557517051697,-0.15400144457817078,-0.5537493824958801,0.6650640964508057,-0.20005638897418976,0.33955472707748413,-0.10745319724082947,0.40938204526901245,0.49232786893844604,0.2891160845756531,0.2982794940471649,-0.21071551740169525,0.1352890282869339,-0.4051114022731781,0.02500566840171814,0.6048691868782043,0.3052615225315094,0.34314459562301636,0.4957244396209717,-0.39153823256492615,-0.40923306345939636,0.320358544588089,0.534554123878479,0.3522757291793823,0.07032264024019241,-0.13971015810966492,-0.17627082765102386,-0.3833373486995697,0.23908379673957825,0.13190627098083496,0.27363911271095276,1.2806107997894287,0.4288654327392578,0.47744515538215637,-0.032542333006858826,0.34418219327926636,-0.24874502420425415,0.03285251930356026,-0.1103193610906601,-0.09255648404359818,0.17840847373008728,-0.5367816090583801,0.07802890986204147,-0.1777176409959793,-0.014236601069569588,0.43183019757270813,-0.07164042443037033,-0.06283999979496002,0.051237862557172775,0.4605899453163147,-0.11382156610488892,0.2664749026298523,0.14183995127677917,0.21981601417064667,0.023272715508937836,-0.599907636642456,0.31685805320739746,-0.30720555782318115,-0.08396289497613907,0.0705079585313797,-0.2713690400123596,-0.10818140208721161,0.16528742015361786,0.09157131612300873,0.13611014187335968,0.5215977430343628,-0.35580167174339294,-0.08663516491651535,0.2917966842651367,1.0077240467071533,-0.15578077733516693,0.33945178985595703,-0.5170029401779175,0.30979153513908386,-0.19369831681251526,0.15163247287273407,0.4034132957458496,0.10527114570140839,-0.7671741247177124,0.02615000307559967,-0.6996859908103943,0.02320963703095913,0.7160360813140869,0.21206733584403992,0.19261184334754944,-0.12319697439670563,-0.5815865397453308,0.22297462821006775,-0.33899858593940735,0.38027775287628174,0.02929479070007801,0.7643032670021057,0.1471606194972992,0.35114502906799316,0.046329647302627563,0.0277289729565382,-0.18275362253189087,-0.5340731143951416,0.04330521821975708,-0.6331113576889038,-0.06787705421447754,0.10106662660837173,0.298532098531723,-0.49847421050071716,-0.24956035614013672,-0.10993514955043793,0.3249817490577698,-0.9035943150520325,0.16376915574073792,-0.01832512952387333,-0.3512340486049652,-0.10582368075847626
frame_2.jpg,-0.2443346232175827,-0.2884944677352905,0.6140887141227722,-0.41265225410461426,-0.2743340730667114,-0.2228497415781021,0.23072218894958496,0.1956845372915268,-0.18403764069080353,1.1565889120101929,0.5734626054763794,-0.03962523117661476,0.03161284700036049,-0.14215192198753357,-0.2179955095052719,0.3012112081050873,-0.5065719485282898,-0.2137344926595688,0.3777585029602051,0.18566282093524933,-0.4556898772716522,0.471750944852829,0.28023916482925415,-0.03775041550397873,-0.5712147355079651,0.30927205085754395,-0.4789760410785675,0.32043346762657166,0.0006789886392652988,-0.05561485514044762,1.3018137216567993,0.776123583316803,0.3486301302909851,0.9489371180534363,-0.15609301626682281,-0.02795354463160038,-0.05945448949933052,0.03322992101311684,-0.38441693782806396,0.5963554382324219,0.394778311252594,-0.1567576676607132,-0.3492763042449951,-0.0029174925293773413,0.06617197394371033,-0.3191636800765991,0.46207934617996216,-0.21142618358135223,0.09081078320741653,-0.03954629227519035,-0.39344915747642517,0.6690296530723572,-0.4344099760055542,0.21233053505420685,0.4102831482887268,0.30553796887397766,-0.18180230259895325,-0.0912151038646698,-0.11312241852283478,-0.21890871226787567,0.01858598366379738,-0.24794650077819824,0.28021419048309326,-0.1779593676328659,0.04546871781349182,-0.5966807007789612,0.44620734453201294,-0.16194400191307068,-0.47677454352378845,-0.07838603854179382,-0.33443617820739746,-0.2662103772163391,0.10070239007472992,-0.3460283875465393,0.47543179988861084,0.5470007061958313,0.6889185309410095,0.3019091486930847,0.5441100597381592,-0.43749481439590454,-0.2613401412963867,-0.3842821717262268,-0.05458283796906471,-0.2616334557533264,-0.3062869608402252,0.6036176681518555,-0.21292872726917267,-0.12669503688812256,1.022951364517212,0.5110936760902405,0.28226813673973083,-0.07635805755853653,-0.031083883717656136,0.1786099225282669,0.14985644817352295,-0.008695922791957855,0.20608265697956085,-0.41442179679870605,-0.30457958579063416,0.20798107981681824,0.0840921700000763,-0.34715592861175537,-0.4200442135334015,0.15462687611579895,0.14393864572048187,0.09293250739574432,-0.6226948499679565,-0.06368547677993774,0.15379288792610168,-0.013331171125173569,-0.2642812430858612,-0.33932316303253174,-0.40034306049346924,0.2984977066516876,0.12390933930873871,0.7317220568656921,0.005649421364068985,-0.3416130244731903,0.03412448242306709,0.3909166157245636,-0.2833489179611206,0.7796297669410706,0.16751888394355774,-0.3652935028076172,-0.5894527435302734,0.34543970227241516,0.33470672369003296,-0.17685894668102264,-0.6707972884178162,0.5837599635124207,-0.10301234573125839,-0.02696247026324272,0.6713640689849854,-0.2778063118457794,0.429777055978775,0.25763222575187683,-0.11445123702287674,-0.17067600786685944,0.059813790023326874,0.18849904835224152,0.031204264611005783,-0.16677998006343842,0.50993812084198,0.009521675296127796,0.12817120552062988,0.8958629369735718,-0.5563443899154663,0.6092886328697205,-0.280088871717453,0.4797588288784027,0.3166094422340393,0.7180310487747192,3.5545356273651123,0.3137761354446411,0.05569452792406082,-0.03178482502698898,0.07434327900409698,-0.14251860976219177,-0.24016320705413818,-0.09525765478610992,-0.3513755202293396,-0.3569551110267639,-0.013380543328821659,-0.4259253144264221,-0.16036437451839447,-0.22091805934906006,-0.12332376837730408,-0.1657564640045166,-0.19447340071201324,-0.10906168073415756,-0.0793268010020256,-0.17310303449630737,-0.5948020219802856,-0.14645451307296753,-0.3589409589767456,0.406430721282959,0.49014100432395935,-0.14371062815189362,1.003751277923584,-0.18712517619132996,-0.09417552500963211,-0.17367757856845856,0.01649654097855091,-0.21097032725811005,-0.48975369334220886,0.21800540387630463,-0.2188664823770523,-0.6165726780891418,-0.02083962969481945,-0.12267214804887772,0.07350064069032669,-0.9969061017036438,0.03200523555278778,-0.45547062158584595,0.12008358538150787,0.2631908357143402,-0.28771916031837463,0.053527697920799255,-0.017454709857702255,-0.09012789279222488,0.446272611618042,-0.6036075949668884,-0.2317158281803131,0.23469914495944977,0.11423153430223465,-0.27943941950798035,0.2289370745420456,0.20071576535701752,0.42595282196998596,-0.31819766759872437,0.12437248229980469,0.457099050283432,0.040632735937833786,-0.17824463546276093,0.41332364082336426,0.21671874821186066,0.017807425931096077,-0.5127617120742798,-0.2019089162349701,-0.7098862528800964,0.5526103973388672,0.28123387694358826,-0.29213181138038635,-0.8088152408599854,0.6376329660415649,0.30534467101097107,0.04096277058124542,-0.25906679034233093,0.09678469598293304,-0.14376334846019745,-0.34792110323905945,-0.1763802468776703,-0.5399856567382812,-0.6304289102554321,0.21405497193336487,0.2409134805202484,0.13167829811573029,-0.2606379985809326,-0.6695701479911804,0.08968405425548553,-0.6526898145675659,-0.1131557896733284,-0.009373917244374752,0.04184237867593765,-0.15516337752342224,-0.0005895462818443775,0.004133063834160566,0.6994454860687256,-0.2522496283054352,0.2730742394924164,-0.3539729118347168,0.9064755439758301,0.031204888597130775,-0.3350064158439636,-0.2970564663410187,-0.01684274710714817,0.5719035267829895,-0.34363189339637756,0.1491425782442093,0.6080437898635864,-0.110507532954216,0.15127259492874146,0.14428213238716125,-0.4441819489002228,0.14719368517398834,-0.20988132059574127,0.22273151576519012,0.20110628008842468,0.03583117201924324,-0.3388833701610565,-0.2776828706264496,0.2803293466567993,0.5035905838012695,0.49362894892692566,0.2704189419746399,0.0729547068476677,0.10855704545974731,-0.013257024809718132,-0.206669881939888,-0.262893408536911,0.255942702293396,0.007983622141182423,-0.05150902643799782,0.2225915491580963,-0.21215856075286865,-0.0929015725851059,-0.21290665864944458,0.4009687304496765,0.817590594291687,-0.1689075529575348,0.01186292339116335,0.6532763838768005,0.14884035289287567,-0.27567926049232483,-0.4390299320220947,0.38238683342933655,-0.9109600186347961,0.3100522756576538,-0.18495655059814453,0.8780988454818726,-1.8318995237350464,1.016977071762085,-0.3000064492225647,0.2204323709011078,-2.868558883666992,-0.8249012231826782,-0.7849370837211609,-3.5620296001434326,-0.24003012478351593,0.05286160856485367,-0.25063633918762207,-0.9971264600753784,0.2021729052066803,-0.030567357316613197,0.24119462072849274,0.048246126621961594,-0.5166642069816589,-0.38198307156562805,0.13988511264324188,0.4332839250564575,0.16318795084953308,0.4597552418708801,0.16522498428821564,-0.21905086934566498,0.3328958749771118,0.07254920899868011,0.5144230723381042,0.5709798336029053,0.0021452615037560463,-0.36352062225341797,-0.23059038817882538,0.6024764776229858,0.2872091233730316,0.31780073046684265,-0.5560091733932495,0.20986759662628174,0.1406295895576477,-0.3926207423210144,0.0038863583467900753,-0.20144180953502655,0.42481139302253723,0.22684824466705322,-0.3568320572376251,0.280549019575119,-0.14669843018054962,0.3335253894329071,-0.3703126311302185,0.41445934772491455,-0.07557319104671478,0.08342912048101425,-0.2420138269662857,0.22017470002174377,0.2376508116722107,0.35305967926979065,0.36092081665992737,-0.017711404711008072,0.21942506730556488,0.7099500894546509,-0.6898189187049866,-0.4660518169403076,0.09479266405105591,-0.6670218706130981,-0.32495445013046265,0.22769606113433838,-0.3415031433105469,-0.09923196583986282,0.26306015253067017,0.014718342572450638,-1.0051982402801514,-0.15370236337184906,0.294673353433609,0.030587848275899887,-0.6086168885231018,0.17911720275878906,0.07519783824682236,-0.031927600502967834,0.2173679620027542,-0.3620692789554596,-0.14549139142036438,0.2858421206474304,-0.504604160785675,-0.28556445240974426,-0.3357432782649994,0.48678719997406006,-0.23492716252803802,-0.1639208346605301,0.28422990441322327,0.6668041348457336,-0.09050419926643372,0.38536638021469116,-0.27768242359161377,-0.597883939743042,0.15118727087974548,-0.04834553971886635,-1.0925827026367188,-0.3124066889286041,0.5967532396316528,0.49553704261779785,0.30823102593421936,0.0022716433741152287,-0.0618254579603672,-0.26876264810562134,-0.43888917565345764,0.606292188167572,-0.042150069028139114,0.21906130015850067,0.06676439195871353,0.3884800970554352,0.6289541125297546,0.3745540976524353,0.1662442535161972,-0.3703620433807373,0.3717506527900696,-0.37612926959991455,0.032354503870010376,0.6224965453147888,0.36390307545661926,0.28452208638191223,0.359496533870697,-0.4427834451198578,-0.3081720769405365,0.3659507632255554,0.42080265283584595,0.3763151466846466,0.052575867623090744,-0.0602935366332531,-0.2357988804578781,-0.5779282450675964,0.17666254937648773,0.17163744568824768,0.19057601690292358,1.2194167375564575,0.31818491220474243,0.35437336564064026,-0.08339689671993256,0.2523628771305084,-0.053170617669820786,-0.02362407185137272,-0.05964767932891846,-0.06742694973945618,0.11795218288898468,-0.42761388421058655,0.17019681632518768,-0.032136473804712296,-0.0004570462624542415,0.5338555574417114,-0.059589408338069916,0.09862176328897476,0.29928258061408997,0.3781619966030121,-0.23103675246238708,0.35435086488723755,0.1699838787317276,0.21253207325935364,0.08369194716215134,-0.42612090706825256,0.34841787815093994,-0.3359258770942688,-0.1984366774559021,0.07895910739898682,-0.4966385066509247,-0.280482679605484,0.23124220967292786,-0.11055754870176315,0.19185283780097961,0.5414171814918518,-0.5047303438186646,-0.05229383334517479,0.39417579770088196,1.1021718978881836,-0.03448733314871788,0.413810670375824,-0.588789165019989,0.29509982466697693,-0.15852318704128265,0.11861273646354675,0.2503528296947479,0.13557714223861694,-0.6793762445449829,0.0717400461435318,-0.8492320775985718,0.049350395798683167,0.7139266133308411,-0.10310981422662735,0.02803140878677368,-0.020713994279503822,-0.5957120060920715,0.34628090262413025,-0.16608528792858124,0.3848218619823456,0.40128982067108154,0.7634077072143555,0.008004124276340008,0.3702210485935211,0.13625840842723846,0.06206902861595154,-0.16323408484458923,-0.46315798163414,-0.08961532264947891,-0.43023449182510376,-0.22736801207065582,0.17697657644748688,0.17648689448833466,-0.3046836853027344,-0.16059397161006927,-0.11755330860614777,0.27083563804626465,-0.9538753628730774,0.17121802270412445,-0.174411803483963,-0.354948490858078,0.03435457870364189
frame_3.jpg,-0.3448506295681,-0.10203555971384048,0.6197947859764099,-0.5680970549583435,-0.4121731221675873,-0.10491499304771423,0.11587899923324585,0.2014778107404709,-0.09502352029085159,1.1148279905319214,0.5363578796386719,-0.14256028831005096,0.06398053467273712,-0.21048550307750702,-0.14720040559768677,0.3617545962333679,-0.31614458560943604,-0.20480497181415558,0.2639175057411194,0.19777707755565643,-0.37984907627105713,0.36291947960853577,0.2641608715057373,0.05016043409705162,-0.5969713926315308,0.3650895953178406,-0.5356467366218567,0.33628740906715393,-0.14207126200199127,-0.0007903327932581306,1.2348003387451172,0.8057101368904114,0.29329192638397217,0.8227885961532593,-0.23798026144504547,-0.00349347572773695,-0.09244697540998459,0.12045712769031525,-0.38966670632362366,0.668327808380127,0.4039916396141052,-0.1749783456325531,-0.49804484844207764,-0.05959184095263481,0.021557796746492386,-0.25713369250297546,0.4634440839290619,-0.26657018065452576,0.1620049774646759,-0.1394413411617279,-0.3831983208656311,0.7015061974525452,-0.38248416781425476,0.297572523355484,0.2975933253765106,0.2714431881904602,-0.26363998651504517,-0.16770844161510468,-0.16643007099628448,-0.35527297854423523,-0.22773201763629913,-0.2762247622013092,0.4341648519039154,-0.065066397190094,0.07445324212312698,-0.7466151714324951,0.3346446454524994,-0.23085546493530273,-0.514901876449585,-0.03491148352622986,-0.38627710938453674,-0.2337028980255127,0.011449011042714119,-0.3065493106842041,0.4342197775840759,0.5088251233100891,0.6708390712738037,0.27552667260169983,0.5319698452949524,-0.3712141811847687,-0.19973473250865936,-0.34096887707710266,-0.20082330703735352,-0.20961952209472656,-0.15218400955200195,0.5451600551605225,-0.28401103615760803,-0.1973479837179184,1.111436128616333,0.2854284644126892,0.37497538328170776,-0.12870751321315765,-0.05527770519256592,0.20684127509593964,0.21464191377162933,0.054741259664297104,0.17842625081539154,-0.30506306886672974,-0.3282291293144226,0.13779906928539276,0.25932005047798157,-0.4018431007862091,-0.4103199541568756,0.18688681721687317,0.20315532386302948,0.12697641551494598,-0.6418165564537048,-0.013852794654667377,0.013471882790327072,0.12006393820047379,-0.27468666434288025,-0.407091349363327,-0.3996341824531555,0.20172323286533356,0.095765121281147,0.6372596621513367,-0.08282431960105896,-0.22318361699581146,0.07598352432250977,0.40391039848327637,-0.24503833055496216,0.7960926294326782,0.0895097479224205,-0.4000641703605652,-0.5075402855873108,0.4197514057159424,0.26956307888031006,-0.17926186323165894,-0.6974052786827087,0.5918828845024109,0.022904885932803154,-0.11171077936887741,0.6734284162521362,-0.37010785937309265,0.3646944761276245,0.3535042405128479,-0.02968098595738411,-0.11747508496046066,0.044570405036211014,0.2888641059398651,0.022832809016108513,-0.08770657330751419,0.5757752656936646,-0.02590409852564335,0.09072352200746536,0.8836613297462463,-0.608361542224884,0.6229766607284546,-0.0895080491900444,0.42683956027030945,0.33837375044822693,0.8497685790061951,3.8112831115722656,0.2142196148633957,0.14689522981643677,-0.0012470092624425888,0.1953774243593216,-0.15436244010925293,-0.18170873820781708,-0.17480924725532532,-0.39744240045547485,-0.42432674765586853,0.038426272571086884,-0.42890679836273193,-0.04576823115348816,-0.36812418699264526,-0.0032975799404084682,-0.26181045174598694,-0.08138085156679153,-0.13679848611354828,-0.20181456208229065,-0.199365496635437,-0.4860861003398895,0.13251230120658875,-0.498810738325119,0.6667249798774719,0.38892966508865356,-0.27654072642326355,1.0656496286392212,-0.07082100212574005,-0.16131535172462463,-0.05866412818431854,-0.0419909805059433,-0.091081902384758,-0.6675946116447449,0.316389262676239,-0.18466900289058685,-0.6287209391593933,-0.03843764215707779,-0.20125043392181396,0.07563891261816025,-0.9757168292999268,0.16897566616535187,-0.49211347103118896,0.12268352508544922,0.12048586457967758,-0.3383873403072357,-0.13630440831184387,0.057938408106565475,-0.056603528559207916,0.38080379366874695,-0.5211562514305115,-0.3709706962108612,0.28922519087791443,0.1998371034860611,-0.2830357551574707,0.1836055964231491,0.09590151906013489,0.35389307141304016,-0.44184839725494385,0.1701188087463379,0.4653029143810272,-0.005666367243975401,-0.15686281025409698,0.5271806120872498,0.3614010810852051,0.10990477353334427,-0.48043709993362427,-0.16659872233867645,-0.6616402268409729,0.563229501247406,0.2961347699165344,-0.2537320852279663,-0.9086733460426331,0.7061545848846436,0.18837419152259827,0.04368202015757561,-0.24492643773555756,0.17848671972751617,-0.0842692032456398,-0.31899455189704895,-0.11257953196763992,-0.6166235208511353,-0.541557788848877,0.10948418080806732,0.2222577929496765,0.15984024107456207,-0.22174391150474548,-0.8090404868125916,0.0632399320602417,-0.6060349941253662,-0.26781439781188965,-0.1201326996088028,0.08147883415222168,-0.23024079203605652,0.05522804334759712,-0.028750505298376083,0.7216848134994507,-0.2700628638267517,0.29256919026374817,-0.3270638883113861,0.8246471881866455,0.016430387273430824,-0.3868360221385956,-0.35637617111206055,-0.15906956791877747,0.4174787998199463,-0.14861489832401276,0.29567134380340576,0.5993698835372925,-0.12142852693796158,0.12148156762123108,0.24705062806606293,-0.501014232635498,0.09381574392318726,-0.088204525411129,0.22212085127830505,0.14795038104057312,0.1679682433605194,-0.24145017564296722,-0.2424812763929367,0.32490500807762146,0.5658022165298462,0.47337806224823,0.22738292813301086,0.016022594645619392,0.12646879255771637,0.023931046947836876,-0.17809510231018066,-0.18852490186691284,0.08436539769172668,-0.03720676898956299,-0.02852761559188366,0.3009016215801239,-0.3168700933456421,-0.10652489960193634,-0.14951489865779877,0.4462399184703827,0.8328739404678345,-0.10358650982379913,-0.08819763362407684,0.6264387369155884,0.1954754739999771,-0.25386250019073486,-0.44587066769599915,0.452779084444046,-0.8542475700378418,0.24509680271148682,-0.1861707866191864,0.9109370112419128,-1.7004637718200684,0.9729910492897034,-0.3629154860973358,0.048365429043769836,-3.029679536819458,-0.8705631494522095,-0.796184241771698,-3.819596290588379,-0.15589822828769684,0.09588705748319626,-0.3487352132797241,-1.0283695459365845,0.24851693212985992,0.06261108070611954,0.21573664247989655,0.046075936406850815,-0.46116042137145996,-0.3632875978946686,0.14937539398670197,0.5400293469429016,0.08139663189649582,0.25547662377357483,0.2334929257631302,-0.16250546276569366,0.3658343553543091,-0.17524410784244537,0.4886524975299835,0.640400230884552,0.012108230032026768,-0.41530895233154297,-0.2825806438922882,0.48338547348976135,0.21593503654003143,0.3274247944355011,-0.6067667007446289,0.21804629266262054,-0.025111187249422073,-0.32338300347328186,-0.028090542182326317,-0.03087378852069378,0.4871811270713806,0.25425252318382263,-0.3119283616542816,0.06329815834760666,-0.11109842360019684,0.34239915013313293,-0.4167850911617279,0.4013698995113373,-0.09416062384843826,0.020624522119760513,-0.23536279797554016,0.3535366356372833,0.27229952812194824,0.4353022873401642,0.5185491442680359,0.11763938516378403,0.25362691283226013,0.7582491040229797,-0.6952707767486572,-0.4041067659854889,0.054885536432266235,-0.641550600528717,-0.3903290331363678,0.13305331766605377,-0.4671896696090698,-0.11167457699775696,0.20893868803977966,0.005643782671540976,-0.9719661474227905,-0.06371086835861206,0.3550383150577545,0.18958532810211182,-0.6239373087882996,0.21284005045890808,-0.04395938292145729,0.06883476674556732,0.021884270012378693,-0.48881101608276367,-0.041788000613451004,0.18077242374420166,-0.4868576228618622,-0.3364209234714508,-0.33523017168045044,0.5200275182723999,-0.2085440456867218,-0.18341727554798126,0.21646736562252045,0.525879442691803,0.019466347992420197,0.5832108855247498,-0.1781996637582779,-0.46668800711631775,0.1467917412519455,0.010458370670676231,-1.0554394721984863,-0.2755448818206787,0.6335518956184387,0.5893996357917786,0.3758981227874756,-0.0576799213886261,-0.08367879688739777,-0.1903337687253952,-0.5282140374183655,0.6172662377357483,-0.1447792649269104,0.36598294973373413,-0.08742142468690872,0.3538703918457031,0.5342483520507812,0.3450715243816376,0.22593748569488525,-0.22430767118930817,0.31492772698402405,-0.38197678327560425,-0.06364817917346954,0.5918477773666382,0.33702343702316284,0.35886460542678833,0.4384625554084778,-0.41101840138435364,-0.38953202962875366,0.48020464181900024,0.4856615960597992,0.31473997235298157,-0.05318596586585045,-0.12880030274391174,-0.27392032742500305,-0.4356779158115387,0.1650424301624298,0.09749145805835724,0.28440579771995544,1.2667386531829834,0.42559006810188293,0.461365282535553,-0.031901825219392776,0.35314255952835083,-0.15964098274707794,0.05214705318212509,-0.06506015360355377,-0.06798295676708221,0.16168580949306488,-0.472817599773407,0.1557827889919281,-0.04875146597623825,-0.16481398046016693,0.44255974888801575,-0.16327020525932312,-0.05642459914088249,0.06635890901088715,0.42042699456214905,-0.16352778673171997,0.2937532067298889,0.06572870910167694,0.1323685646057129,-0.0016018273308873177,-0.5451947450637817,0.219779372215271,-0.34700363874435425,-0.060189224779605865,0.0834425538778305,-0.3555196523666382,-0.14193645119667053,0.24830982089042664,0.046956680715084076,0.10229969769716263,0.5849080681800842,-0.26216307282447815,0.005237536504864693,0.27308836579322815,1.0606063604354858,-0.1219232976436615,0.3223828673362732,-0.48359814286231995,0.2961141765117645,-0.05859949439764023,0.11564187705516815,0.2923106849193573,0.1318301260471344,-0.5816025137901306,0.0018325954442843795,-0.7685526013374329,-0.012898127548396587,0.711358904838562,0.12012781202793121,0.198150634765625,-0.07541020959615707,-0.5309430360794067,0.34314414858818054,-0.3206762671470642,0.2841190993785858,0.3124863803386688,0.8437401056289673,0.16218878328800201,0.3545374274253845,0.10915445536375046,-0.0022001119796186686,-0.18702729046344757,-0.48494720458984375,0.0689704641699791,-0.5958256125450134,-0.12972328066825867,0.11184567958116531,0.25535091757774353,-0.4448308050632477,-0.16739335656166077,-0.08215919137001038,0.2942613661289215,-0.9881468415260315,0.06330200284719467,-0.10558126121759415,-0.3649899959564209,-0.07966282218694687
frame_4.jpg,-0.022727763280272484,-0.14039656519889832,0.4164576530456543,-1.2782636880874634,-0.18977735936641693,0.21070754528045654,0.3805459439754486,0.12665006518363953,-0.10640791803598404,0.8272489309310913,0.2606877386569977,-0.38059040904045105,-0.19276338815689087,0.2890751361846924,0.3615834712982178,0.32227882742881775,-0.5528615713119507,-0.39846935868263245,0.9209256768226624,-0.2666482925415039,-0.2916768491268158,0.31811201572418213,0.001900037401355803,0.07479149103164673,-0.3492325246334076,0.5512065291404724,-0.16932043433189392,0.5353354811668396,0.16650886833667755,-0.1520986706018448,1.1991578340530396,0.38244497776031494,0.1571195125579834,1.065583348274231,-0.03536552935838699,0.3074628710746765,-0.17895811796188354,-0.40474191308021545,0.03336433321237564,0.03271596133708954,0.30063340067863464,0.07667811214923859,-0.6951869130134583,0.4219720959663391,0.5339978933334351,-0.28988346457481384,0.8445017337799072,-0.26058176159858704,-0.04569938778877258,0.10520223528146744,-0.990475058555603,1.2773782014846802,-0.17103596031665802,0.4042881727218628,0.4679483473300934,0.4405008852481842,-0.36553624272346497,-0.13053373992443085,-0.27387794852256775,0.2135840654373169,-0.39766570925712585,-0.45174285769462585,0.07315879315137863,-0.10688132792711258,-0.0399702712893486,-0.3889258801937103,0.12744612991809845,0.11799318343400955,-0.5558785200119019,0.2739069163799286,-0.4982146620750427,-0.2388879507780075,-0.4626978933811188,-0.253438800573349,0.17862842977046967,0.3772311508655548,1.3110829591751099,0.03914706036448479,0.0991322249174118,-0.29705101251602173,-0.3558935225009918,-0.023009996861219406,0.5322257280349731,-0.24315020442008972,0.09023177623748779,0.6125884652137756,-0.1275518536567688,-0.30817827582359314,0.6975009441375732,0.3237626850605011,0.07932715117931366,0.27499860525131226,0.12120715528726578,-0.02123057097196579,0.04160105064511299,-0.5881555080413818,0.06377853453159332,-0.21334603428840637,0.25134509801864624,0.5578510165214539,0.18347430229187012,0.22210447490215302,0.1285167634487152,0.2830233871936798,0.12356999516487122,0.19851773977279663,-0.6577578783035278,-0.23624072968959808,0.5757017135620117,0.26935261487960815,-0.6102792620658875,-0.4946240782737732,-0.010662454180419445,0.20631921291351318,-0.061634961515665054,0.28114697337150574,0.07000989466905594,-0.06364444643259048,0.5534036159515381,0.1602906882762909,-0.392304927110672,0.4372669756412506,0.04342803359031677,-0.42914173007011414,-0.04202040284872055,-0.002610469702631235,0.029161594808101654,-0.021952562034130096,-0.39085203409194946,0.6809788942337036,0.00709835160523653,-0.8647623658180237,0.1360567957162857,-0.24276216328144073,0.22485019266605377,0.3162282407283783,-0.3057081699371338,0.05435573309659958,-0.15009617805480957,0.13701161742210388,0.06861674785614014,-0.013454977422952652,0.5303290486335754,-0.19828541576862335,0.025479482486844063,1.229616403579712,-0.6529588103294373,0.7719517350196838,-0.24834604561328888,0.062184128910303116,0.0002636194694787264,-0.0818532407283783,3.221438407897949,0.05326218530535698,-0.026572082191705704,-0.10246242582798004,-0.1787051260471344,-0.026888972148299217,0.0694252997636795,0.2452961653470993,-0.4051947593688965,0.06201883777976036,0.10529521107673645,-0.12091070413589478,0.08618316799402237,-0.8202524185180664,0.23006407916545868,-0.6642822623252869,-0.05200854316353798,-0.3057810664176941,-0.25279393792152405,0.245912566781044,-0.49594423174858093,-0.16467301547527313,-0.6818962693214417,1.1077384948730469,0.10568666458129883,0.09809276461601257,1.2870731353759766,0.1512673795223236,0.1112661361694336,-0.0376654714345932,0.27174893021583557,-0.24457260966300964,-0.3065706789493561,-0.24033845961093903,-0.29338181018829346,-0.2949548065662384,0.17128247022628784,0.014589350670576096,-0.23187068104743958,-0.8416420817375183,0.016843197867274284,-0.20317967236042023,0.4559491276741028,0.13677355647087097,-0.00013916382158640772,-0.14316171407699585,-0.3849979341030121,-0.3559897243976593,0.4535229504108429,-0.009044057689607143,-0.17488154768943787,-0.11820683628320694,-0.0331701785326004,-0.2855544686317444,0.13025103509426117,0.16772975027561188,0.08763407915830612,0.13704553246498108,0.03976861387491226,0.4596700370311737,0.2610909342765808,0.4995540976524353,-0.12401549518108368,0.3061271905899048,-0.14903856813907623,-1.2437775135040283,-0.14607858657836914,-0.554528534412384,0.6757611632347107,0.08037051558494568,-0.11898861825466156,-0.4129869341850281,0.2929301857948303,0.08240212500095367,0.16185986995697021,-0.27333351969718933,-0.11938002705574036,0.0933547243475914,-0.3776775896549225,-0.1696026772260666,-0.16322576999664307,-0.3362540304660797,0.2654374837875366,0.271408349275589,-0.29888468980789185,-0.12304168939590454,-0.07149755209684372,0.06368843466043472,-0.5905370116233826,-0.3785388469696045,0.2651559114456177,-0.26838982105255127,0.011242575943470001,0.08234766125679016,0.23494058847427368,0.4590320289134979,-0.18187834322452545,0.012629344128072262,-0.01679201051592827,0.8306563496589661,0.04161657765507698,-0.4983440637588501,-0.2728610634803772,0.05556478351354599,0.5988565683364868,-0.14071306586265564,0.3212800621986389,0.44714856147766113,-0.00958058051764965,0.0038546419236809015,0.5124596357345581,-0.30019280314445496,0.020303960889577866,-0.11581143736839294,-0.02842169813811779,0.432294100522995,0.4130731523036957,-0.3381890654563904,-0.4819351136684418,-0.5187423229217529,0.46111905574798584,0.5097326040267944,0.6589831709861755,-0.0660618394613266,0.03827541694045067,-0.03679337352514267,-0.25658801198005676,0.03467583656311035,-0.13051088154315948,0.03797568380832672,0.03294524550437927,-0.32207822799682617,-0.2990524470806122,0.3858806788921356,-0.2774805426597595,0.07568857818841934,0.4102169871330261,0.07591895014047623,0.4535664916038513,0.4818284809589386,-0.46076855063438416,-0.7366054654121399,-0.2327882945537567,0.17818118631839752,-0.6017637848854065,-0.306194931268692,0.007995759136974812,0.33504071831703186,-1.1880627870559692,0.2245602160692215,-0.03056979365646839,0.1584082394838333,-2.6396100521087646,-0.8816370368003845,-0.6710419058799744,-3.233025550842285,0.04390200972557068,-0.26777535676956177,-0.5899649262428284,-0.14329953491687775,0.06725834310054779,0.21343286335468292,0.3586273193359375,0.23119664192199707,-0.49911344051361084,-0.7558516263961792,0.1638820320367813,-0.014247020706534386,0.3366855978965759,0.5475820302963257,-0.0345236137509346,0.2895825505256653,-0.15577787160873413,-0.21119026839733124,0.44490230083465576,0.5913589000701904,0.1203233003616333,-0.17566543817520142,-0.4730648994445801,-0.07514909654855728,0.4059714078903198,0.19272218644618988,-0.559238851070404,-0.1800837516784668,0.19145110249519348,-0.31780052185058594,-0.3023132383823395,-0.29831165075302124,0.19384542107582092,0.1177448108792305,-0.20455124974250793,-0.020123125985264778,-0.44053414463996887,0.07808179408311844,-0.05003802105784416,0.4995342791080475,0.3476583659648895,0.05738263949751854,-0.7621504068374634,-0.1268800050020218,0.4402404725551605,0.3187384009361267,0.07168573886156082,0.17902125418186188,0.3988569676876068,0.6249903440475464,-0.6083374619483948,-0.4092175364494324,0.07659991085529327,-0.6052613854408264,-0.7137335538864136,0.08501546084880829,-0.4145250618457794,-0.20229656994342804,-0.14509324729442596,0.08063416182994843,-0.8042261004447937,-0.03740403801202774,0.2583092153072357,0.2883187234401703,0.05313825607299805,0.5366160273551941,-0.482178270816803,0.9488762617111206,0.04057007655501366,-0.40189608931541443,-0.013644196093082428,0.504217267036438,-0.181619793176651,-0.3807235062122345,-0.32190772891044617,0.3986852765083313,-0.003186736721545458,0.0419786311686039,0.20911332964897156,0.4953555166721344,-0.21589218080043793,0.14936764538288116,0.3686006963253021,-0.022817334160208702,0.5629678964614868,0.339167058467865,-1.430647850036621,0.1803337037563324,0.5864333510398865,0.13692204654216766,0.43326759338378906,-0.2050728052854538,0.0593494288623333,-0.24556991457939148,-0.7401939034461975,0.9248515963554382,0.49144983291625977,0.40000829100608826,-0.4051855504512787,-0.031003694981336594,0.359672874212265,0.6694411635398865,0.5149814486503601,-0.13645155727863312,0.06887787580490112,-0.49507227540016174,0.07829207926988602,0.41677990555763245,0.2601851522922516,-0.3042560815811157,0.356943279504776,-0.210487961769104,-0.011584838852286339,0.32165029644966125,0.7670695781707764,0.37464457750320435,0.1828182488679886,-0.20616623759269714,-0.03016096167266369,-0.5349252820014954,0.2641940414905548,-0.45334285497665405,0.5825656652450562,1.3847407102584839,0.2543337047100067,0.3690219223499298,-0.17976902425289154,-0.19514895975589752,-0.0907716453075409,0.2734525203704834,-0.2673910856246948,0.2611411511898041,0.5768711566925049,-0.5546051859855652,0.14340932667255402,-0.19969895482063293,-0.17325516045093536,0.38920193910598755,-0.6138412356376648,0.3345712423324585,0.02182396501302719,0.37178462743759155,-0.4609778821468353,0.6017302870750427,0.6608117818832397,-0.05267105624079704,0.29735133051872253,0.0584707111120224,0.3967401087284088,-0.17120800912380219,-0.15993787348270416,0.13344870507717133,-0.461517870426178,-0.5103409886360168,0.36446917057037354,-0.17574508488178253,0.02724984660744667,0.013505613431334496,-0.2166386991739273,0.042400751262903214,0.28813374042510986,0.7742868661880493,-0.43188145756721497,0.2031501829624176,-0.12608209252357483,0.07806552201509476,0.16693973541259766,0.560354471206665,0.436458557844162,0.388232558965683,-0.40023648738861084,0.07457611709833145,-1.035342812538147,0.46267905831336975,1.0963209867477417,-0.36493444442749023,-0.0037917376030236483,0.031221583485603333,-0.560697615146637,-0.17721107602119446,-0.35169094800949097,0.341647744178772,0.3422468602657318,0.40700647234916687,-0.10948440432548523,0.6282165050506592,0.2769673466682434,0.19988784193992615,-0.45474883913993835,0.15843415260314941,0.034058522433042526,-0.6555498242378235,-0.07422006130218506,0.02448192797601223,0.024105770513415337,-0.534280002117157,-0.44904565811157227,-0.21968768537044525,0.2799067497253418,-0.788880467414856,0.21164201200008392,-0.3118460476398468,-0.4094814360141754,0.056135695427656174
